svm_type c_svc
kernel_type linear
nr_class 3
total_sv 19
rho -0.9375 -0.875 0.5
label 1 2 3
nr_sv 16 1 2
SV
0.0625 0.125 1:1.0 
0.0625 0.125 2:1.0 
0.0625 0.125 3:1.0 
0.0625 0.125 4:1.0 
0.0625 0.125 5:1.0 
0.0625 0.125 6:1.0 
0.0625 0.125 7:1.0 
0.0625 0.125 9:1.0 
0.0625 0.125 13:1.0 
0.0625 0.125 14:1.0 
0.0625 0.125 15:1.0 
0.0625 0.125 16:1.0 
0.0625 0.125 17:1.0 
0.0625 0.125 18:1.0 
0.0625 0.125 19:1.0 
0.0625 0.125 20:1.0 
-1.0 1.0 10:1.0 
-1.0 -0.5 11:1.0 
-1.0 -0.5 12:1.0 
